<?xml version="1.0"?>
<opencv_storage>
<!-- Automatically converted from trainout, window size = 26x26 -->
<Female_Genitals_Nude_haar_cascade type_id="opencv-haar-classifier">
  <size>
    26 26</size>
  <stages>
    <_>
      <!-- stage 0 -->
      <trees>
        <_>
          <!-- tree 0 -->
          <_>
            <!-- root node -->
            <feature>
              <rects>
                <_>
                  2 0 24 24 -1.</_>
                <_>
                  8 0 12 24 2.</_></rects>
              <tilted>0</tilted></feature>
            <threshold>-4.6120699495077133e-02</threshold>
            <left_node>1</left_node>
            <right_node>2</right_node></_>
          <_>
            <!-- node 1 -->
            <feature>
              <rects>
                <_>
                  0 6 4 20 -1.</_>
                <_>
                  2 6 2 20 2.</_></rects>
              <tilted>0</tilted></feature>
            <threshold>-2.4834449868649244e-03</threshold>
            <left_node>4</left_node>
            <right_node>3</right_node></_>
          <_>
            <!-- node 2 -->
            <feature>
              <rects>
                <_>
                  9 0 6 10 -1.</_>
                <_>
                  9 5 6 5 2.</_></rects>
              <tilted>0</tilted></feature>
            <threshold>-1.4946470037102699e-02</threshold>
            <left_val>-1.1817470192909241e-01</left_val>
            <right_val>-7.4792778491973877e-01</right_val></_>
          <_>
            <!-- node 3 -->
            <feature>
              <rects>
                <_>
                  6 0 17 18 -1.</_>
                <_>
                  6 9 17 9 2.</_></rects>
              <tilted>0</tilted></feature>
            <threshold>-8.1972137093544006e-02</threshold>
            <left_val>3.8412660360336304e-01</left_val>
            <right_val>-3.6037778854370117e-01</right_val></_>
          <_>
            <!-- node 4 -->
            <feature>
              <rects>
                <_>
                  0 16 3 9 -1.</_>
                <_>
                  1 16 1 9 3.</_></rects>
              <tilted>0</tilted></feature>
            <threshold>8.0019347369670868e-03</threshold>
            <left_val>6.9580882787704468e-01</left_val>
            <right_val>-7.4828147888183594e-01</right_val></_></_>
        <_>
          <!-- tree 1 -->
          <_>
            <!-- root node -->
            <feature>
              <rects>
                <_>
                  20 12 6 11 -1.</_>
                <_>
                  23 12 3 11 2.</_></rects>
              <tilted>0</tilted></feature>
            <threshold>7.7423742040991783e-03</threshold>
            <left_node>1</left_node>
            <right_node>3</right_node></_>
          <_>
            <!-- node 1 -->
            <feature>
              <rects>
                <_>
                  0 0 11 4 -1.</_>
                <_>
                  0 2 11 2 2.</_></rects>
              <tilted>0</tilted></feature>
            <threshold>-4.0530441328883171e-03</threshold>
            <left_val>7.3818907141685486e-02</left_val>
            <right_node>2</right_node></_>
          <_>
            <!-- node 2 -->
            <feature>
              <rects>
                <_>
                  0 10 14 6 -1.</_>
                <_>
                  7 10 7 6 2.</_></rects>
              <tilted>0</tilted></feature>
            <threshold>-3.2557468861341476e-02</threshold>
            <left_val>-8.7646551430225372e-02</left_val>
            <right_val>-7.1343737840652466e-01</right_val></_>
          <_>
            <!-- node 3 -->
            <feature>
              <rects>
                <_>
                  0 1 20 16 -1.</_>
                <_>
                  5 1 10 16 2.</_></rects>
              <tilted>0</tilted></feature>
            <threshold>-7.5466642156243324e-03</threshold>
            <left_val>5.0479251146316528e-01</left_val>
            <right_node>4</right_node></_>
          <_>
            <!-- node 4 -->
            <feature>
              <rects>
                <_>
                  6 24 17 2 -1.</_>
                <_>
                  6 25 17 1 2.</_></rects>
              <tilted>0</tilted></feature>
            <threshold>3.5121029941365123e-04</threshold>
            <left_val>-6.6005128622055054e-01</left_val>
            <right_val>2.0220360159873962e-01</right_val></_></_>
        <_>
          <!-- tree 2 -->
          <_>
            <!-- root node -->
            <feature>
              <rects>
                <_>
                  23 3 3 20 -1.</_>
                <_>
                  24 3 1 20 3.</_></rects>
              <tilted>0</tilted></feature>
            <threshold>6.8221068941056728e-03</threshold>
            <left_node>1</left_node>
            <right_val>-6.1413151025772095e-01</right_val></_>
          <_>
            <!-- node 1 -->
            <feature>
              <rects>
                <_>
                  23 15 3 8 -1.</_>
                <_>
                  24 15 1 8 3.</_></rects>
              <tilted>0</tilted></feature>
            <threshold>-3.8694150280207396e-03</threshold>
            <left_val>-4.8939868807792664e-01</left_val>
            <right_node>2</right_node></_>
          <_>
            <!-- node 2 -->
            <feature>
              <rects>
                <_>
                  1 0 25 3 -1.</_>
                <_>
                  1 1 25 1 3.</_></rects>
              <tilted>0</tilted></feature>
            <threshold>4.6481559984385967e-03</threshold>
            <left_node>3</left_node>
            <right_val>-3.3731618523597717e-01</right_val></_>
          <_>
            <!-- node 3 -->
            <feature>
              <rects>
                <_>
                  10 6 10 3 -1.</_>
                <_>
                  10 6 5 3 2.</_></rects>
              <tilted>1</tilted></feature>
            <threshold>-4.3390080332756042e-02</threshold>
            <left_val>-5.2305549383163452e-01</left_val>
            <right_node>4</right_node></_>
          <_>
            <!-- node 4 -->
            <feature>
              <rects>
                <_>
                  20 13 6 3 -1.</_>
                <_>
                  20 14 6 1 3.</_></rects>
              <tilted>0</tilted></feature>
            <threshold>3.2583631109446287e-03</threshold>
            <left_val>4.8468178510665894e-01</left_val>
            <right_val>-3.9975410699844360e-01</right_val></_></_>
        <_>
          <!-- tree 3 -->
          <_>
            <!-- root node -->
            <feature>
              <rects>
                <_>
                  13 0 13 4 -1.</_>
                <_>
                  13 2 13 2 2.</_></rects>
              <tilted>0</tilted></feature>
            <threshold>-3.2422950025647879e-03</threshold>
            <left_node>2</left_node>
            <right_node>1</right_node></_>
          <_>
            <!-- node 1 -->
            <feature>
              <rects>
                <_>
                  3 0 20 6 -1.</_>
                <_>
                  3 0 10 3 2.</_>
                <_>
                  13 3 10 3 2.</_></rects>
              <tilted>0</tilted></feature>
            <threshold>8.6335288360714912e-03</threshold>
            <left_node>4</left_node>
            <right_val>9.0716011822223663e-02</right_val></_>
          <_>
            <!-- node 2 -->
            <feature>
              <rects>
                <_>
                  24 0 1 6 -1.</_>
                <_>
                  24 2 1 2 3.</_></rects>
              <tilted>0</tilted></feature>
            <threshold>-1.4456169446930289e-03</threshold>
            <left_val>-3.4539398550987244e-01</left_val>
            <right_node>3</right_node></_>
          <_>
            <!-- node 3 -->
            <feature>
              <rects>
                <_>
                  23 1 3 3 -1.</_>
                <_>
                  23 2 3 1 3.</_></rects>
              <tilted>0</tilted></feature>
            <threshold>1.6053579747676849e-03</threshold>
            <left_val>4.8309189081192017e-01</left_val>
            <right_val>-6.0666680335998535e-01</right_val></_>
          <_>
            <!-- node 4 -->
            <feature>
              <rects>
                <_>
                  11 15 3 3 -1.</_>
                <_>
                  12 15 1 3 3.</_></rects>
              <tilted>0</tilted></feature>
            <threshold>-5.4871910251677036e-03</threshold>
            <left_val>4.1249570250511169e-01</left_val>
            <right_val>-6.0653328895568848e-01</right_val></_></_></trees>
      <stage_threshold>-8.0514848232269287e-01</stage_threshold>
      <parent>-1</parent>
      <next>-1</next></_>
    <_>
      <!-- stage 1 -->
      <trees>
        <_>
          <!-- tree 0 -->
          <_>
            <!-- root node -->
            <feature>
              <rects>
                <_>
                  0 0 24 25 -1.</_>
                <_>
                  6 0 12 25 2.</_></rects>
              <tilted>0</tilted></feature>
            <threshold>-1.9896629452705383e-01</threshold>
            <left_node>4</left_node>
            <right_node>1</right_node></_>
          <_>
            <!-- node 1 -->
            <feature>
              <rects>
                <_>
                  22 7 4 17 -1.</_>
                <_>
                  24 7 2 17 2.</_></rects>
              <tilted>0</tilted></feature>
            <threshold>6.0004019178450108e-03</threshold>
            <left_node>3</left_node>
            <right_node>2</right_node></_>
          <_>
            <!-- node 2 -->
            <feature>
              <rects>
                <_>
                  0 5 4 16 -1.</_>
                <_>
                  2 5 2 16 2.</_></rects>
              <tilted>0</tilted></feature>
            <threshold>-4.9852668307721615e-03</threshold>
            <left_val>3.3727988600730896e-01</left_val>
            <right_val>-2.9798451066017151e-01</right_val></_>
          <_>
            <!-- node 3 -->
            <feature>
              <rects>
                <_>
                  0 0 12 20 -1.</_>
                <_>
                  6 0 6 20 2.</_></rects>
              <tilted>0</tilted></feature>
            <threshold>-9.2634223401546478e-02</threshold>
            <left_val>1.2715309858322144e-02</left_val>
            <right_val>-6.7976862192153931e-01</right_val></_>
          <_>
            <!-- node 4 -->
            <feature>
              <rects>
                <_>
                  4 12 2 3 -1.</_>
                <_>
                  4 13 2 1 3.</_></rects>
              <tilted>0</tilted></feature>
            <threshold>1.6462550265714526e-03</threshold>
            <left_val>6.7966848611831665e-01</left_val>
            <right_val>-6.1529201269149780e-01</right_val></_></_>
        <_>
          <!-- tree 1 -->
          <_>
            <!-- root node -->
            <feature>
              <rects>
                <_>
                  2 2 4 3 -1.</_>
                <_>
                  2 3 4 1 3.</_></rects>
              <tilted>0</tilted></feature>
            <threshold>-1.7842230154201388e-03</threshold>
            <left_val>-6.2606692314147949e-01</left_val>
            <right_node>1</right_node></_>
          <_>
            <!-- node 1 -->
            <feature>
              <rects>
                <_>
                  0 2 5 3 -1.</_>
                <_>
                  0 3 5 1 3.</_></rects>
              <tilted>0</tilted></feature>
            <threshold>1.8757840152829885e-03</threshold>
            <left_node>2</left_node>
            <right_val>-4.8189350962638855e-01</right_val></_>
          <_>
            <!-- node 2 -->
            <feature>
              <rects>
                <_>
                  0 0 3 3 -1.</_>
                <_>
                  0 1 3 1 3.</_></rects>
              <tilted>0</tilted></feature>
            <threshold>-1.4688919764012098e-03</threshold>
            <left_val>-6.0085141658782959e-01</left_val>
            <right_node>3</right_node></_>
          <_>
            <!-- node 3 -->
            <feature>
              <rects>
                <_>
                  22 1 4 2 -1.</_>
                <_>
                  24 1 2 2 2.</_></rects>
              <tilted>0</tilted></feature>
            <threshold>4.2198129813186824e-04</threshold>
            <left_node>4</left_node>
            <right_val>5.6690758466720581e-01</right_val></_>
          <_>
            <!-- node 4 -->
            <feature>
              <rects>
                <_>
                  13 22 7 4 -1.</_>
                <_>
                  13 24 7 2 2.</_></rects>
              <tilted>0</tilted></feature>
            <threshold>1.0923040099442005e-03</threshold>
            <left_val>-2.9023969173431396e-01</left_val>
            <right_val>3.7742009758949280e-01</right_val></_></_>
        <_>
          <!-- tree 2 -->
          <_>
            <!-- root node -->
            <feature>
              <rects>
                <_>
                  1 19 6 3 -1.</_>
                <_>
                  1 20 6 1 3.</_></rects>
              <tilted>0</tilted></feature>
            <threshold>2.3812300059944391e-03</threshold>
            <left_node>1</left_node>
            <right_val>-5.5352729558944702e-01</right_val></_>
          <_>
            <!-- node 1 -->
            <feature>
              <rects>
                <_>
                  2 19 3 3 -1.</_>
                <_>
                  2 20 3 1 3.</_></rects>
              <tilted>0</tilted></feature>
            <threshold>-1.2037940323352814e-03</threshold>
            <left_val>-3.6812898516654968e-01</left_val>
            <right_node>2</right_node></_>
          <_>
            <!-- node 2 -->
            <feature>
              <rects>
                <_>
                  6 16 1 6 -1.</_>
                <_>
                  6 16 1 3 2.</_></rects>
              <tilted>1</tilted></feature>
            <threshold>-1.1190170189365745e-03</threshold>
            <left_val>5.1040792465209961e-01</left_val>
            <right_node>3</right_node></_>
          <_>
            <!-- node 3 -->
            <feature>
              <rects>
                <_>
                  3 14 4 11 -1.</_>
                <_>
                  5 14 2 11 2.</_></rects>
              <tilted>0</tilted></feature>
            <threshold>7.0839328691363335e-03</threshold>
            <left_node>4</left_node>
            <right_val>5.0543630123138428e-01</right_val></_>
          <_>
            <!-- node 4 -->
            <feature>
              <rects>
                <_>
                  1 13 10 6 -1.</_>
                <_>
                  6 13 5 6 2.</_></rects>
              <tilted>0</tilted></feature>
            <threshold>-1.8506700173020363e-02</threshold>
            <left_val>1.8061210215091705e-01</left_val>
            <right_val>-5.4973268508911133e-01</right_val></_></_></trees>
      <stage_threshold>-8.0039918422698975e-01</stage_threshold>
      <parent>0</parent>
      <next>-1</next></_>
    <_>
      <!-- stage 2 -->
      <trees>
        <_>
          <!-- tree 0 -->
          <_>
            <!-- root node -->
            <feature>
              <rects>
                <_>
                  2 0 24 26 -1.</_>
                <_>
                  8 0 12 26 2.</_></rects>
              <tilted>0</tilted></feature>
            <threshold>-2.6989421248435974e-01</threshold>
            <left_node>3</left_node>
            <right_node>1</right_node></_>
          <_>
            <!-- node 1 -->
            <feature>
              <rects>
                <_>
                  2 0 21 20 -1.</_>
                <_>
                  2 10 21 10 2.</_></rects>
              <tilted>0</tilted></feature>
            <threshold>-1.6453759372234344e-01</threshold>
            <left_node>2</left_node>
            <right_val>-4.7694429755210876e-01</right_val></_>
          <_>
            <!-- node 2 -->
            <feature>
              <rects>
                <_>
                  21 2 3 14 -1.</_>
                <_>
                  22 2 1 14 3.</_></rects>
              <tilted>0</tilted></feature>
            <threshold>4.0441220626235008e-03</threshold>
            <left_node>4</left_node>
            <right_val>-6.8957859277725220e-01</right_val></_>
          <_>
            <!-- node 3 -->
            <feature>
              <rects>
                <_>
                  0 10 8 13 -1.</_>
                <_>
                  4 10 4 13 2.</_></rects>
              <tilted>0</tilted></feature>
            <threshold>-2.1491570398211479e-02</threshold>
            <left_val>7.1415472030639648e-01</left_val>
            <right_val>9.7220048308372498e-02</right_val></_>
          <_>
            <!-- node 4 -->
            <feature>
              <rects>
                <_>
                  22 0 4 17 -1.</_>
                <_>
                  23 0 2 17 2.</_></rects>
              <tilted>0</tilted></feature>
            <threshold>5.1229270175099373e-03</threshold>
            <left_val>3.1791719794273376e-01</left_val>
            <right_val>-5.2928811311721802e-01</right_val></_></_>
        <_>
          <!-- tree 1 -->
          <_>
            <!-- root node -->
            <feature>
              <rects>
                <_>
                  1 19 3 7 -1.</_>
                <_>
                  2 19 1 7 3.</_></rects>
              <tilted>0</tilted></feature>
            <threshold>2.7449640911072493e-03</threshold>
            <left_node>1</left_node>
            <right_val>-5.9822928905487061e-01</right_val></_>
          <_>
            <!-- node 1 -->
            <feature>
              <rects>
                <_>
                  1 22 3 4 -1.</_>
                <_>
                  2 22 1 4 3.</_></rects>
              <tilted>0</tilted></feature>
            <threshold>-2.2265219595283270e-03</threshold>
            <left_val>-4.7341230511665344e-01</left_val>
            <right_node>2</right_node></_>
          <_>
            <!-- node 2 -->
            <feature>
              <rects>
                <_>
                  22 0 3 2 -1.</_>
                <_>
                  23 0 1 2 3.</_></rects>
              <tilted>0</tilted></feature>
            <threshold>-1.4887449797242880e-03</threshold>
            <left_val>-4.3943589925765991e-01</left_val>
            <right_node>3</right_node></_>
          <_>
            <!-- node 3 -->
            <feature>
              <rects>
                <_>
                  23 0 3 4 -1.</_>
                <_>
                  24 0 1 4 3.</_></rects>
              <tilted>0</tilted></feature>
            <threshold>-2.2590029984712601e-03</threshold>
            <left_val>-3.2956150174140930e-01</left_val>
            <right_node>4</right_node></_>
          <_>
            <!-- node 4 -->
            <feature>
              <rects>
                <_>
                  18 3 8 16 -1.</_>
                <_>
                  22 3 4 16 2.</_></rects>
              <tilted>0</tilted></feature>
            <threshold>3.3300701528787613e-02</threshold>
            <left_val>2.4714469909667969e-01</left_val>
            <right_val>6.6101282835006714e-01</right_val></_></_>
        <_>
          <!-- tree 2 -->
          <_>
            <!-- root node -->
            <feature>
              <rects>
                <_>
                  22 18 3 8 -1.</_>
                <_>
                  23 18 1 8 3.</_></rects>
              <tilted>0</tilted></feature>
            <threshold>4.3398630805313587e-03</threshold>
            <left_node>1</left_node>
            <right_val>-6.7030930519104004e-01</right_val></_>
          <_>
            <!-- node 1 -->
            <feature>
              <rects>
                <_>
                  22 21 3 5 -1.</_>
                <_>
                  23 21 1 5 3.</_></rects>
              <tilted>0</tilted></feature>
            <threshold>-2.3080080281943083e-03</threshold>
            <left_val>-5.0174301862716675e-01</left_val>
            <right_node>2</right_node></_>
          <_>
            <!-- node 2 -->
            <feature>
              <rects>
                <_>
                  0 5 2 6 -1.</_>
                <_>
                  1 5 1 6 2.</_></rects>
              <tilted>0</tilted></feature>
            <threshold>-3.7146420800127089e-04</threshold>
            <left_val>4.2250791192054749e-01</left_val>
            <right_node>3</right_node></_>
          <_>
            <!-- node 3 -->
            <feature>
              <rects>
                <_>
                  20 18 6 8 -1.</_>
                <_>
                  23 18 3 8 2.</_></rects>
              <tilted>0</tilted></feature>
            <threshold>3.3630379475653172e-03</threshold>
            <left_val>-3.7306219339370728e-01</left_val>
            <right_node>4</right_node></_>
          <_>
            <!-- node 4 -->
            <feature>
              <rects>
                <_>
                  23 16 3 10 -1.</_>
                <_>
                  24 16 1 10 3.</_></rects>
              <tilted>0</tilted></feature>
            <threshold>2.4455650709569454e-03</threshold>
            <left_val>3.5770058631896973e-01</left_val>
            <right_val>-5.8584290742874146e-01</right_val></_></_>
        <_>
          <!-- tree 3 -->
          <_>
            <!-- root node -->
            <feature>
              <rects>
                <_>
                  0 1 2 4 -1.</_>
                <_>
                  0 2 2 2 2.</_></rects>
              <tilted>0</tilted></feature>
            <threshold>-9.7756157629191875e-04</threshold>
            <left_val>-4.7589820623397827e-01</left_val>
            <right_node>1</right_node></_>
          <_>
            <!-- node 1 -->
            <feature>
              <rects>
                <_>
                  2 0 2 2 -1.</_>
                <_>
                  2 0 1 2 2.</_></rects>
              <tilted>1</tilted></feature>
            <threshold>2.4503140593878925e-04</threshold>
            <left_node>4</left_node>
            <right_node>2</right_node></_>
          <_>
            <!-- node 2 -->
            <feature>
              <rects>
                <_>
                  1 0 3 3 -1.</_>
                <_>
                  2 0 1 3 3.</_></rects>
              <tilted>0</tilted></feature>
            <threshold>-1.2539089657366276e-03</threshold>
            <left_val>-2.8957128524780273e-01</left_val>
            <right_node>3</right_node></_>
          <_>
            <!-- node 3 -->
            <feature>
              <rects>
                <_>
                  0 1 7 4 -1.</_>
                <_>
                  0 2 7 2 2.</_></rects>
              <tilted>0</tilted></feature>
            <threshold>2.7579138986766338e-03</threshold>
            <left_val>5.3841471672058105e-01</left_val>
            <right_val>-3.9012390375137329e-01</right_val></_>
          <_>
            <!-- node 4 -->
            <feature>
              <rects>
                <_>
                  3 5 8 2 -1.</_>
                <_>
                  7 5 4 2 2.</_></rects>
              <tilted>0</tilted></feature>
            <threshold>-1.7683269688859582e-03</threshold>
            <left_val>2.4884520098567009e-02</left_val>
            <right_val>-4.9266260862350464e-01</right_val></_></_></trees>
      <stage_threshold>-7.9357272386550903e-01</stage_threshold>
      <parent>1</parent>
      <next>-1</next></_>
    <_>
      <!-- stage 3 -->
      <trees>
        <_>
          <!-- tree 0 -->
          <_>
            <!-- root node -->
            <feature>
              <rects>
                <_>
                  0 12 8 13 -1.</_>
                <_>
                  4 12 4 13 2.</_></rects>
              <tilted>0</tilted></feature>
            <threshold>-2.7502199634909630e-02</threshold>
            <left_node>1</left_node>
            <right_node>2</right_node></_>
          <_>
            <!-- node 1 -->
            <feature>
              <rects>
                <_>
                  18 6 8 20 -1.</_>
                <_>
                  22 6 4 20 2.</_></rects>
              <tilted>0</tilted></feature>
            <threshold>3.1614881008863449e-02</threshold>
            <left_val>-1.0209249705076218e-01</left_val>
            <right_val>5.6932288408279419e-01</right_val></_>
          <_>
            <!-- node 2 -->
            <feature>
              <rects>
                <_>
                  11 13 2 2 -1.</_>
                <_>
                  11 13 1 1 2.</_>
                <_>
                  12 14 1 1 2.</_></rects>
              <tilted>0</tilted></feature>
            <threshold>-4.2387208668515086e-04</threshold>
            <left_val>3.2901120185852051e-01</left_val>
            <right_node>3</right_node></_>
          <_>
            <!-- node 3 -->
            <feature>
              <rects>
                <_>
                  12 12 2 2 -1.</_>
                <_>
                  12 12 1 1 2.</_>
                <_>
                  13 13 1 1 2.</_></rects>
              <tilted>0</tilted></feature>
            <threshold>3.8661170401610434e-04</threshold>
            <left_node>4</left_node>
            <right_val>2.4145799875259399e-01</right_val></_>
          <_>
            <!-- node 4 -->
            <feature>
              <rects>
                <_>
                  12 11 2 4 -1.</_>
                <_>
                  12 11 1 2 2.</_>
                <_>
                  13 13 1 2 2.</_></rects>
              <tilted>0</tilted></feature>
            <threshold>-1.0925709502771497e-03</threshold>
            <left_val>1.9890840351581573e-01</left_val>
            <right_val>-6.6869431734085083e-01</right_val></_></_>
        <_>
          <!-- tree 1 -->
          <_>
            <!-- root node -->
            <feature>
              <rects>
                <_>
                  10 12 3 1 -1.</_>
                <_>
                  11 12 1 1 3.</_></rects>
              <tilted>0</tilted></feature>
            <threshold>5.2659620996564627e-04</threshold>
            <left_node>1</left_node>
            <right_val>3.7660080194473267e-01</right_val></_>
          <_>
            <!-- node 1 -->
            <feature>
              <rects>
                <_>
                  10 12 3 1 -1.</_>
                <_>
                  11 12 1 1 3.</_></rects>
              <tilted>0</tilted></feature>
            <threshold>-7.8811787534505129e-04</threshold>
            <left_node>4</left_node>
            <right_node>2</right_node></_>
          <_>
            <!-- node 2 -->
            <feature>
              <rects>
                <_>
                  24 11 2 3 -1.</_>
                <_>
                  25 11 1 3 2.</_></rects>
              <tilted>0</tilted></feature>
            <threshold>4.3695679778466001e-05</threshold>
            <left_val>-6.2022542953491211e-01</left_val>
            <right_node>3</right_node></_>
          <_>
            <!-- node 3 -->
            <feature>
              <rects>
                <_>
                  25 3 1 2 -1.</_>
                <_>
                  25 4 1 1 2.</_></rects>
              <tilted>0</tilted></feature>
            <threshold>-3.3829601306933910e-05</threshold>
            <left_val>1.7668080329895020e-01</left_val>
            <right_val>-3.6654150485992432e-01</right_val></_>
          <_>
            <!-- node 4 -->
            <feature>
              <rects>
                <_>
                  2 12 4 3 -1.</_>
                <_>
                  2 13 4 1 3.</_></rects>
              <tilted>0</tilted></feature>
            <threshold>-1.8156040459871292e-03</threshold>
            <left_val>-6.7870461940765381e-01</left_val>
            <right_val>4.3486079573631287e-01</right_val></_></_>
        <_>
          <!-- tree 2 -->
          <_>
            <!-- root node -->
            <feature>
              <rects>
                <_>
                  1 5 3 2 -1.</_>
                <_>
                  1 6 3 1 2.</_></rects>
              <tilted>0</tilted></feature>
            <threshold>-2.9182499929447658e-05</threshold>
            <left_node>3</left_node>
            <right_node>1</right_node></_>
          <_>
            <!-- node 1 -->
            <feature>
              <rects>
                <_>
                  0 0 2 6 -1.</_>
                <_>
                  1 0 1 6 2.</_></rects>
              <tilted>0</tilted></feature>
            <threshold>-5.6058750487864017e-05</threshold>
            <left_node>2</left_node>
            <right_val>-5.7508462667465210e-01</right_val></_>
          <_>
            <!-- node 2 -->
            <feature>
              <rects>
                <_>
                  6 3 12 10 -1.</_>
                <_>
                  6 8 12 5 2.</_></rects>
              <tilted>0</tilted></feature>
            <threshold>-1.8913980573415756e-02</threshold>
            <left_val>3.1728690862655640e-01</left_val>
            <right_val>-3.5707640647888184e-01</right_val></_>
          <_>
            <!-- node 3 -->
            <feature>
              <rects>
                <_>
                  0 5 7 3 -1.</_>
                <_>
                  0 6 7 1 3.</_></rects>
              <tilted>0</tilted></feature>
            <threshold>-2.3432590533047915e-03</threshold>
            <left_val>-2.9123258590698242e-01</left_val>
            <right_node>4</right_node></_>
          <_>
            <!-- node 4 -->
            <feature>
              <rects>
                <_>
                  0 0 6 2 -1.</_>
                <_>
                  0 1 6 1 2.</_></rects>
              <tilted>0</tilted></feature>
            <threshold>-3.0652291025035083e-04</threshold>
            <left_val>5.0134897232055664e-01</left_val>
            <right_val>4.6152170747518539e-02</right_val></_></_>
        <_>
          <!-- tree 3 -->
          <_>
            <!-- root node -->
            <feature>
              <rects>
                <_>
                  7 22 12 4 -1.</_>
                <_>
                  7 24 12 2 2.</_></rects>
              <tilted>0</tilted></feature>
            <threshold>5.6493091396987438e-03</threshold>
            <left_node>1</left_node>
            <right_node>3</right_node></_>
          <_>
            <!-- node 1 -->
            <feature>
              <rects>
                <_>
                  14 8 4 3 -1.</_>
                <_>
                  16 8 2 3 2.</_></rects>
              <tilted>0</tilted></feature>
            <threshold>3.4399200230836868e-03</threshold>
            <left_node>2</left_node>
            <right_val>2.1535439789295197e-01</right_val></_>
          <_>
            <!-- node 2 -->
            <feature>
              <rects>
                <_>
                  1 23 21 3 -1.</_>
                <_>
                  8 24 7 1 9.</_></rects>
              <tilted>0</tilted></feature>
            <threshold>-5.8144759386777878e-02</threshold>
            <left_val>1.4839029312133789e-01</left_val>
            <right_node>4</right_node></_>
          <_>
            <!-- node 3 -->
            <feature>
              <rects>
                <_>
                  24 20 1 4 -1.</_>
                <_>
                  24 21 1 2 2.</_></rects>
              <tilted>0</tilted></feature>
            <threshold>-4.6577630564570427e-04</threshold>
            <left_val>-2.1100769937038422e-01</left_val>
            <right_val>3.6581501364707947e-01</right_val></_>
          <_>
            <!-- node 4 -->
            <feature>
              <rects>
                <_>
                  17 7 4 1 -1.</_>
                <_>
                  19 7 2 1 2.</_></rects>
              <tilted>0</tilted></feature>
            <threshold>1.2244309764355421e-03</threshold>
            <left_val>-6.5810388326644897e-01</left_val>
            <right_val>-9.3492969870567322e-02</right_val></_></_></trees>
      <stage_threshold>-7.0610791444778442e-01</stage_threshold>
      <parent>2</parent>
      <next>-1</next></_>
    <_>
      <!-- stage 4 -->
      <trees>
        <_>
          <!-- tree 0 -->
          <_>
            <!-- root node -->
            <feature>
              <rects>
                <_>
                  19 5 6 12 -1.</_>
                <_>
                  19 5 6 6 2.</_></rects>
              <tilted>1</tilted></feature>
            <threshold>4.4068150222301483e-02</threshold>
            <left_val>-9.9355888366699219e-01</left_val>
            <right_node>1</right_node></_>
          <_>
            <!-- node 1 -->
            <feature>
              <rects>
                <_>
                  5 5 18 13 -1.</_>
                <_>
                  14 5 9 13 2.</_></rects>
              <tilted>0</tilted></feature>
            <threshold>2.0423600077629089e-01</threshold>
            <left_node>2</left_node>
            <right_val>-3.6510631442070007e-01</right_val></_>
          <_>
            <!-- node 2 -->
            <feature>
              <rects>
                <_>
                  1 5 2 19 -1.</_>
                <_>
                  2 5 1 19 2.</_></rects>
              <tilted>0</tilted></feature>
            <threshold>-1.3531530275940895e-03</threshold>
            <left_node>4</left_node>
            <right_node>3</right_node></_>
          <_>
            <!-- node 3 -->
            <feature>
              <rects>
                <_>
                  17 11 5 4 -1.</_>
                <_>
                  17 12 5 2 2.</_></rects>
              <tilted>0</tilted></feature>
            <threshold>3.0696520116180182e-03</threshold>
            <left_val>2.5011950731277466e-01</left_val>
            <right_val>-9.9999922513961792e-01</right_val></_>
          <_>
            <!-- node 4 -->
            <feature>
              <rects>
                <_>
                  0 12 3 6 -1.</_>
                <_>
                  1 14 1 2 9.</_></rects>
              <tilted>0</tilted></feature>
            <threshold>1.3956310227513313e-02</threshold>
            <left_val>6.8499970436096191e-01</left_val>
            <right_val>-9.9966841936111450e-01</right_val></_></_></trees>
      <stage_threshold>-3.6510631442070007e-01</stage_threshold>
      <parent>3</parent>
      <next>5</next></_>
    <_>
      <!-- stage 5 -->
      <trees>
        <_>
          <!-- tree 0 -->
          <_>
            <!-- root node -->
            <feature>
              <rects>
                <_>
                  19 5 6 12 -1.</_>
                <_>
                  19 5 6 6 2.</_></rects>
              <tilted>1</tilted></feature>
            <threshold>4.4375561177730560e-02</threshold>
            <left_node>1</left_node>
            <right_val>-1.0001720190048218e+00</right_val></_>
          <_>
            <!-- node 1 -->
            <feature>
              <rects>
                <_>
                  23 0 1 4 -1.</_>
                <_>
                  23 2 1 2 2.</_></rects>
              <tilted>0</tilted></feature>
            <threshold>-2.1914570243097842e-04</threshold>
            <left_node>3</left_node>
            <right_node>2</right_node></_>
          <_>
            <!-- node 2 -->
            <feature>
              <rects>
                <_>
                  20 5 4 15 -1.</_>
                <_>
                  22 5 2 15 2.</_></rects>
              <tilted>0</tilted></feature>
            <threshold>5.0088819116353989e-03</threshold>
            <left_val>-4.2748230695724487e-01</left_val>
            <right_node>4</right_node></_>
          <_>
            <!-- node 3 -->
            <feature>
              <rects>
                <_>
                  21 1 5 3 -1.</_>
                <_>
                  21 2 5 1 3.</_></rects>
              <tilted>0</tilted></feature>
            <threshold>-2.2566448897123337e-03</threshold>
            <left_val>-2.3429830372333527e-01</left_val>
            <right_val>5.8375287055969238e-01</right_val></_>
          <_>
            <!-- node 4 -->
            <feature>
              <rects>
                <_>
                  21 11 3 15 -1.</_>
                <_>
                  22 11 1 15 3.</_></rects>
              <tilted>0</tilted></feature>
            <threshold>5.9571331366896629e-03</threshold>
            <left_val>4.1909781098365784e-01</left_val>
            <right_val>-7.3380559682846069e-01</right_val></_></_>
        <_>
          <!-- tree 1 -->
          <_>
            <!-- root node -->
            <feature>
              <rects>
                <_>
                  19 5 6 12 -1.</_>
                <_>
                  19 5 6 6 2.</_></rects>
              <tilted>1</tilted></feature>
            <threshold>4.4375561177730560e-02</threshold>
            <left_node>1</left_node>
            <right_val>-1.0000460147857666e+00</right_val></_>
          <_>
            <!-- node 1 -->
            <feature>
              <rects>
                <_>
                  13 17 1 2 -1.</_>
                <_>
                  13 18 1 1 2.</_></rects>
              <tilted>0</tilted></feature>
            <threshold>-2.0844470418523997e-04</threshold>
            <left_node>4</left_node>
            <right_node>2</right_node></_>
          <_>
            <!-- node 2 -->
            <feature>
              <rects>
                <_>
                  13 15 2 4 -1.</_>
                <_>
                  13 15 1 2 2.</_>
                <_>
                  14 17 1 2 2.</_></rects>
              <tilted>0</tilted></feature>
            <threshold>-4.8686031368561089e-04</threshold>
            <left_val>3.3811488747596741e-01</left_val>
            <right_node>3</right_node></_>
          <_>
            <!-- node 3 -->
            <feature>
              <rects>
                <_>
                  10 17 2 2 -1.</_>
                <_>
                  10 17 1 1 2.</_>
                <_>
                  11 18 1 1 2.</_></rects>
              <tilted>0</tilted></feature>
            <threshold>-2.6553100906312466e-04</threshold>
            <left_val>2.4060979485511780e-01</left_val>
            <right_val>-5.8885532617568970e-01</right_val></_>
          <_>
            <!-- node 4 -->
            <feature>
              <rects>
                <_>
                  17 17 7 3 -1.</_>
                <_>
                  17 18 7 1 3.</_></rects>
              <tilted>0</tilted></feature>
            <threshold>-4.0563279762864113e-03</threshold>
            <left_val>-7.1141660213470459e-01</left_val>
            <right_val>4.8024970293045044e-01</right_val></_></_></trees>
      <stage_threshold>-1.8687249720096588e-01</stage_threshold>
      <parent>3</parent>
      <next>-1</next></_>
    <_>
      <!-- stage 6 -->
      <trees>
        <_>
          <!-- tree 0 -->
          <_>
            <!-- root node -->
            <feature>
              <rects>
                <_>
                  5 6 18 12 -1.</_>
                <_>
                  14 6 9 12 2.</_></rects>
              <tilted>0</tilted></feature>
            <threshold>6.7553453147411346e-02</threshold>
            <left_val>-1.</left_val>
            <right_node>1</right_node></_>
          <_>
            <!-- node 1 -->
            <feature>
              <rects>
                <_>
                  6 4 16 15 -1.</_>
                <_>
                  14 4 8 15 2.</_></rects>
              <tilted>0</tilted></feature>
            <threshold>2.0762909948825836e-01</threshold>
            <left_node>2</left_node>
            <right_node>4</right_node></_>
          <_>
            <!-- node 2 -->
            <feature>
              <rects>
                <_>
                  2 9 2 6 -1.</_>
                <_>
                  3 9 1 6 2.</_></rects>
              <tilted>0</tilted></feature>
            <threshold>-4.2274990119040012e-04</threshold>
            <left_val>6.0181182622909546e-01</left_val>
            <right_node>3</right_node></_>
          <_>
            <!-- node 3 -->
            <feature>
              <rects>
                <_>
                  7 5 8 20 -1.</_>
                <_>
                  9 5 4 20 2.</_></rects>
              <tilted>0</tilted></feature>
            <threshold>-4.8212190158665180e-03</threshold>
            <left_val>3.1224310398101807e-01</left_val>
            <right_val>-6.0023248195648193e-01</right_val></_>
          <_>
            <!-- node 4 -->
            <feature>
              <rects>
                <_>
                  17 10 4 4 -1.</_>
                <_>
                  17 12 4 2 2.</_></rects>
              <tilted>0</tilted></feature>
            <threshold>-2.6193219237029552e-03</threshold>
            <left_val>1.4893150329589844e-01</left_val>
            <right_val>-8.4725821018218994e-01</right_val></_></_></trees>
      <stage_threshold>-6.0023248195648193e-01</stage_threshold>
      <parent>4</parent>
      <next>7</next></_>
    <_>
      <!-- stage 7 -->
      <trees>
        <_>
          <!-- tree 0 -->
          <_>
            <!-- root node -->
            <feature>
              <rects>
                <_>
                  5 6 18 12 -1.</_>
                <_>
                  14 6 9 12 2.</_></rects>
              <tilted>0</tilted></feature>
            <threshold>7.0959992706775665e-02</threshold>
            <left_node>1</left_node>
            <right_val>-1.0000489950180054e+00</right_val></_>
          <_>
            <!-- node 1 -->
            <feature>
              <rects>
                <_>
                  12 10 12 8 -1.</_>
                <_>
                  12 12 12 4 2.</_></rects>
              <tilted>0</tilted></feature>
            <threshold>-3.2043129205703735e-02</threshold>
            <left_val>-1.</left_val>
            <right_node>2</right_node></_>
          <_>
            <!-- node 2 -->
            <feature>
              <rects>
                <_>
                  25 2 1 4 -1.</_>
                <_>
                  25 2 1 2 2.</_></rects>
              <tilted>1</tilted></feature>
            <threshold>5.5342091945931315e-04</threshold>
            <left_node>3</left_node>
            <right_val>7.1341168880462646e-01</right_val></_>
          <_>
            <!-- node 3 -->
            <feature>
              <rects>
                <_>
                  8 1 11 6 -1.</_>
                <_>
                  8 4 11 3 2.</_></rects>
              <tilted>0</tilted></feature>
            <threshold>-4.9414201639592648e-03</threshold>
            <left_val>5.4954338073730469e-01</left_val>
            <right_node>4</right_node></_>
          <_>
            <!-- node 4 -->
            <feature>
              <rects>
                <_>
                  16 2 4 8 -1.</_>
                <_>
                  16 2 2 4 2.</_>
                <_>
                  18 6 2 4 2.</_></rects>
              <tilted>0</tilted></feature>
            <threshold>-5.9062521904706955e-03</threshold>
            <left_val>5.5345940589904785e-01</left_val>
            <right_val>-7.2946971654891968e-01</right_val></_></_></trees>
      <stage_threshold>5.4954338073730469e-01</stage_threshold>
      <parent>4</parent>
      <next>-1</next></_>
    <_>
      <!-- stage 8 -->
      <trees>
        <_>
          <!-- tree 0 -->
          <_>
            <!-- root node -->
            <feature>
              <rects>
                <_>
                  16 13 10 13 -1.</_>
                <_>
                  21 13 5 13 2.</_></rects>
              <tilted>0</tilted></feature>
            <threshold>3.9148990064859390e-02</threshold>
            <left_node>1</left_node>
            <right_val>-9.9997872114181519e-01</right_val></_>
          <_>
            <!-- node 1 -->
            <feature>
              <rects>
                <_>
                  22 1 4 2 -1.</_>
                <_>
                  22 2 4 1 2.</_></rects>
              <tilted>0</tilted></feature>
            <threshold>-7.6069212809670717e-05</threshold>
            <left_node>2</left_node>
            <right_node>3</right_node></_>
          <_>
            <!-- node 2 -->
            <feature>
              <rects>
                <_>
                  20 1 6 4 -1.</_>
                <_>
                  20 2 6 2 2.</_></rects>
              <tilted>0</tilted></feature>
            <threshold>-1.6980780055746436e-03</threshold>
            <left_val>-1.9765649735927582e-01</left_val>
            <right_node>4</right_node></_>
          <_>
            <!-- node 3 -->
            <feature>
              <rects>
                <_>
                  10 9 1 6 -1.</_>
                <_>
                  10 12 1 3 2.</_></rects>
              <tilted>0</tilted></feature>
            <threshold>-2.9968158924020827e-04</threshold>
            <left_val>1.5017509460449219e-01</left_val>
            <right_val>-7.6543128490447998e-01</right_val></_>
          <_>
            <!-- node 4 -->
            <feature>
              <rects>
                <_>
                  22 1 4 3 -1.</_>
                <_>
                  22 2 4 1 3.</_></rects>
              <tilted>0</tilted></feature>
            <threshold>-1.5573489945381880e-03</threshold>
            <left_val>-1.</left_val>
            <right_val>5.9930437803268433e-01</right_val></_></_>
        <_>
          <!-- tree 1 -->
          <_>
            <!-- root node -->
            <feature>
              <rects>
                <_>
                  14 7 12 14 -1.</_>
                <_>
                  14 7 6 7 2.</_>
                <_>
                  20 14 6 7 2.</_></rects>
              <tilted>0</tilted></feature>
            <threshold>-3.5166990011930466e-02</threshold>
            <left_node>4</left_node>
            <right_node>1</right_node></_>
          <_>
            <!-- node 1 -->
            <feature>
              <rects>
                <_>
                  12 12 12 3 -1.</_>
                <_>
                  15 12 6 3 2.</_></rects>
              <tilted>0</tilted></feature>
            <threshold>4.4595459476113319e-03</threshold>
            <left_node>2</left_node>
            <right_node>3</right_node></_>
          <_>
            <!-- node 2 -->
            <feature>
              <rects>
                <_>
                  11 8 4 6 -1.</_>
                <_>
                  11 8 2 3 2.</_>
                <_>
                  13 11 2 3 2.</_></rects>
              <tilted>0</tilted></feature>
            <threshold>-6.1040818691253662e-03</threshold>
            <left_val>1.9823050498962402e-01</left_val>
            <right_val>-6.8874078989028931e-01</right_val></_>
          <_>
            <!-- node 3 -->
            <feature>
              <rects>
                <_>
                  4 4 1 6 -1.</_>
                <_>
                  4 7 1 3 2.</_></rects>
              <tilted>0</tilted></feature>
            <threshold>2.8301018755882978e-04</threshold>
            <left_val>3.9590069651603699e-01</left_val>
            <right_val>-8.0497890710830688e-01</right_val></_>
          <_>
            <!-- node 4 -->
            <feature>
              <rects>
                <_>
                  20 5 6 3 -1.</_>
                <_>
                  20 6 6 1 3.</_></rects>
              <tilted>0</tilted></feature>
            <threshold>2.0465280395001173e-03</threshold>
            <left_val>4.7299319505691528e-01</left_val>
            <right_val>-6.3009971380233765e-01</right_val></_></_></trees>
      <stage_threshold>-3.6953058838844299e-01</stage_threshold>
      <parent>5</parent>
      <next>9</next></_>
    <_>
      <!-- stage 9 -->
      <trees>
        <_>
          <!-- tree 0 -->
          <_>
            <!-- root node -->
            <feature>
              <rects>
                <_>
                  16 13 10 13 -1.</_>
                <_>
                  21 13 5 13 2.</_></rects>
              <tilted>0</tilted></feature>
            <threshold>4.2836219072341919e-02</threshold>
            <left_val>-9.7260797023773193e-01</left_val>
            <right_node>1</right_node></_>
          <_>
            <!-- node 1 -->
            <feature>
              <rects>
                <_>
                  24 25 2 1 -1.</_>
                <_>
                  25 25 1 1 2.</_></rects>
              <tilted>0</tilted></feature>
            <threshold>-3.0298350611701608e-04</threshold>
            <left_val>-6.6443169116973877e-01</left_val>
            <right_node>2</right_node></_>
          <_>
            <!-- node 2 -->
            <feature>
              <rects>
                <_>
                  23 22 3 4 -1.</_>
                <_>
                  23 23 3 2 2.</_></rects>
              <tilted>0</tilted></feature>
            <threshold>-1.4635509578511119e-03</threshold>
            <left_val>-5.0620669126510620e-01</left_val>
            <right_node>3</right_node></_>
          <_>
            <!-- node 3 -->
            <feature>
              <rects>
                <_>
                  2 1 15 21 -1.</_>
                <_>
                  7 1 5 21 3.</_></rects>
              <tilted>0</tilted></feature>
            <threshold>1.2554299831390381e-01</threshold>
            <left_node>4</left_node>
            <right_val>-4.9292859435081482e-01</right_val></_>
          <_>
            <!-- node 4 -->
            <feature>
              <rects>
                <_>
                  22 16 3 2 -1.</_>
                <_>
                  23 16 1 2 3.</_></rects>
              <tilted>0</tilted></feature>
            <threshold>-1.9471519626677036e-03</threshold>
            <left_val>-6.3343501091003418e-01</left_val>
            <right_val>7.8740251064300537e-01</right_val></_></_></trees>
      <stage_threshold>-6.6443169116973877e-01</stage_threshold>
      <parent>5</parent>
      <next>-1</next></_>
    <_>
      <!-- stage 10 -->
      <trees>
        <_>
          <!-- tree 0 -->
          <_>
            <!-- root node -->
            <feature>
              <rects>
                <_>
                  2 11 2 1 -1.</_>
                <_>
                  3 11 1 1 2.</_></rects>
              <tilted>0</tilted></feature>
            <threshold>-4.7288951463997364e-05</threshold>
            <left_node>2</left_node>
            <right_node>1</right_node></_>
          <_>
            <!-- node 1 -->
            <feature>
              <rects>
                <_>
                  12 6 4 6 -1.</_>
                <_>
                  13 6 2 6 2.</_></rects>
              <tilted>0</tilted></feature>
            <threshold>3.3383939880877733e-03</threshold>
            <left_node>4</left_node>
            <right_val>2.7386531233787537e-01</right_val></_>
          <_>
            <!-- node 2 -->
            <feature>
              <rects>
                <_>
                  25 13 1 3 -1.</_>
                <_>
                  25 14 1 1 3.</_></rects>
              <tilted>0</tilted></feature>
            <threshold>-5.4947857279330492e-04</threshold>
            <left_val>-8.2369118928909302e-01</left_val>
            <right_node>3</right_node></_>
          <_>
            <!-- node 3 -->
            <feature>
              <rects>
                <_>
                  9 0 8 19 -1.</_>
                <_>
                  11 0 4 19 2.</_></rects>
              <tilted>0</tilted></feature>
            <threshold>-3.8824160583317280e-03</threshold>
            <left_val>5.1291662454605103e-01</left_val>
            <right_val>-9.1404050588607788e-02</right_val></_>
          <_>
            <!-- node 4 -->
            <feature>
              <rects>
                <_>
                  5 9 16 8 -1.</_>
                <_>
                  13 9 8 8 2.</_></rects>
              <tilted>0</tilted></feature>
            <threshold>4.4424798339605331e-02</threshold>
            <left_val>-1.6646529734134674e-01</left_val>
            <right_val>-8.1591498851776123e-01</right_val></_></_>
        <_>
          <!-- tree 1 -->
          <_>
            <!-- root node -->
            <feature>
              <rects>
                <_>
                  10 10 2 8 -1.</_>
                <_>
                  10 10 1 4 2.</_>
                <_>
                  11 14 1 4 2.</_></rects>
              <tilted>0</tilted></feature>
            <threshold>-1.9700129050761461e-03</threshold>
            <left_val>4.4514390826225281e-01</left_val>
            <right_node>1</right_node></_>
          <_>
            <!-- node 1 -->
            <feature>
              <rects>
                <_>
                  22 4 1 2 -1.</_>
                <_>
                  22 5 1 1 2.</_></rects>
              <tilted>0</tilted></feature>
            <threshold>-3.7022771721240133e-05</threshold>
            <left_node>3</left_node>
            <right_node>2</right_node></_>
          <_>
            <!-- node 2 -->
            <feature>
              <rects>
                <_>
                  12 10 4 6 -1.</_>
                <_>
                  12 10 2 3 2.</_>
                <_>
                  14 13 2 3 2.</_></rects>
              <tilted>0</tilted></feature>
            <threshold>-3.1850060913711786e-03</threshold>
            <left_val>9.6725381910800934e-02</left_val>
            <right_val>-6.4764600992202759e-01</right_val></_>
          <_>
            <!-- node 3 -->
            <feature>
              <rects>
                <_>
                  20 2 2 1 -1.</_>
                <_>
                  21 2 1 1 2.</_></rects>
              <tilted>0</tilted></feature>
            <threshold>4.2362640670035034e-05</threshold>
            <left_val>-3.8376951217651367e-01</left_val>
            <right_node>4</right_node></_>
          <_>
            <!-- node 4 -->
            <feature>
              <rects>
                <_>
                  20 0 4 3 -1.</_>
                <_>
                  21 0 2 3 2.</_></rects>
              <tilted>0</tilted></feature>
            <threshold>8.5659837350249290e-04</threshold>
            <left_val>6.0061568021774292e-01</left_val>
            <right_val>-2.6052549481391907e-01</right_val></_></_>
        <_>
          <!-- tree 2 -->
          <_>
            <!-- root node -->
            <feature>
              <rects>
                <_>
                  1 14 2 1 -1.</_>
                <_>
                  1 14 1 1 2.</_></rects>
              <tilted>1</tilted></feature>
            <threshold>4.0212580643128604e-05</threshold>
            <left_node>3</left_node>
            <right_node>1</right_node></_>
          <_>
            <!-- node 1 -->
            <feature>
              <rects>
                <_>
                  12 18 2 2 -1.</_>
                <_>
                  12 18 1 1 2.</_>
                <_>
                  13 19 1 1 2.</_></rects>
              <tilted>0</tilted></feature>
            <threshold>-3.5268420469947159e-04</threshold>
            <left_val>6.8097907304763794e-01</left_val>
            <right_node>2</right_node></_>
          <_>
            <!-- node 2 -->
            <feature>
              <rects>
                <_>
                  7 3 1 2 -1.</_>
                <_>
                  7 4 1 1 2.</_></rects>
              <tilted>0</tilted></feature>
            <threshold>-1.1597140110097826e-04</threshold>
            <left_val>3.9439401030540466e-01</left_val>
            <right_node>4</right_node></_>
          <_>
            <!-- node 3 -->
            <feature>
              <rects>
                <_>
                  12 17 3 2 -1.</_>
                <_>
                  13 17 1 2 3.</_></rects>
              <tilted>0</tilted></feature>
            <threshold>-2.0350369159132242e-03</threshold>
            <left_val>3.9279970526695251e-01</left_val>
            <right_val>-5.1492452621459961e-01</right_val></_>
          <_>
            <!-- node 4 -->
            <feature>
              <rects>
                <_>
                  25 4 1 2 -1.</_>
                <_>
                  25 5 1 1 2.</_></rects>
              <tilted>0</tilted></feature>
            <threshold>-4.2996580305043608e-05</threshold>
            <left_val>1.5183959901332855e-01</left_val>
            <right_val>-7.6153242588043213e-01</right_val></_></_></trees>
      <stage_threshold>-6.4965397119522095e-01</stage_threshold>
      <parent>6</parent>
      <next>-1</next></_>
    <_>
      <!-- stage 11 -->
      <trees>
        <_>
          <!-- tree 0 -->
          <_>
            <!-- root node -->
            <feature>
              <rects>
                <_>
                  3 5 20 14 -1.</_>
                <_>
                  3 12 20 7 2.</_></rects>
              <tilted>0</tilted></feature>
            <threshold>-1.2733550369739532e-01</threshold>
            <left_val>-1.</left_val>
            <right_node>1</right_node></_>
          <_>
            <!-- node 1 -->
            <feature>
              <rects>
                <_>
                  18 14 8 5 -1.</_>
                <_>
                  22 14 4 5 2.</_></rects>
              <tilted>0</tilted></feature>
            <threshold>1.6159469261765480e-02</threshold>
            <left_node>2</left_node>
            <right_val>6.4163321256637573e-01</right_val></_>
          <_>
            <!-- node 2 -->
            <feature>
              <rects>
                <_>
                  11 14 2 2 -1.</_>
                <_>
                  11 15 2 1 2.</_></rects>
              <tilted>0</tilted></feature>
            <threshold>-1.9504380179569125e-04</threshold>
            <left_node>3</left_node>
            <right_node>4</right_node></_>
          <_>
            <!-- node 3 -->
            <feature>
              <rects>
                <_>
                  8 1 3 3 -1.</_>
                <_>
                  7 2 3 1 3.</_></rects>
              <tilted>1</tilted></feature>
            <threshold>-1.4205899788066745e-03</threshold>
            <left_val>-1.</left_val>
            <right_val>4.8246139287948608e-01</right_val></_>
          <_>
            <!-- node 4 -->
            <feature>
              <rects>
                <_>
                  8 13 2 12 -1.</_>
                <_>
                  8 13 1 6 2.</_>
                <_>
                  9 19 1 6 2.</_></rects>
              <tilted>0</tilted></feature>
            <threshold>-1.1545999906957150e-02</threshold>
            <left_val>7.8982728719711304e-01</left_val>
            <right_val>-9.2696118354797363e-01</right_val></_></_></trees>
      <stage_threshold>4.8246139287948608e-01</stage_threshold>
      <parent>7</parent>
      <next>12</next></_>
    <_>
      <!-- stage 12 -->
      <trees>
        <_>
          <!-- tree 0 -->
          <_>
            <!-- root node -->
            <feature>
              <rects>
                <_>
                  3 4 21 14 -1.</_>
                <_>
                  3 11 21 7 2.</_></rects>
              <tilted>0</tilted></feature>
            <threshold>-1.0025669634342194e-01</threshold>
            <left_node>1</left_node>
            <right_val>-9.9997067451477051e-01</right_val></_>
          <_>
            <!-- node 1 -->
            <feature>
              <rects>
                <_>
                  12 2 12 4 -1.</_>
                <_>
                  12 2 6 4 2.</_></rects>
              <tilted>1</tilted></feature>
            <threshold>9.3342043459415436e-02</threshold>
            <left_node>2</left_node>
            <right_val>-8.8586848974227905e-01</right_val></_>
          <_>
            <!-- node 2 -->
            <feature>
              <rects>
                <_>
                  2 1 7 6 -1.</_>
                <_>
                  2 3 7 2 3.</_></rects>
              <tilted>0</tilted></feature>
            <threshold>-4.1268258355557919e-03</threshold>
            <left_val>-5.6172418594360352e-01</left_val>
            <right_node>3</right_node></_>
          <_>
            <!-- node 3 -->
            <feature>
              <rects>
                <_>
                  15 13 9 4 -1.</_>
                <_>
                  15 14 9 2 2.</_></rects>
              <tilted>0</tilted></feature>
            <threshold>4.2100260034203529e-03</threshold>
            <left_node>4</left_node>
            <right_val>-8.2620751857757568e-01</right_val></_>
          <_>
            <!-- node 4 -->
            <feature>
              <rects>
                <_>
                  0 10 1 4 -1.</_>
                <_>
                  0 11 1 2 2.</_></rects>
              <tilted>0</tilted></feature>
            <threshold>6.8423867924138904e-04</threshold>
            <left_val>6.2583291530609131e-01</left_val>
            <right_val>-6.2546807527542114e-01</right_val></_></_></trees>
      <stage_threshold>-6.2546807527542114e-01</stage_threshold>
      <parent>7</parent>
      <next>-1</next></_>
    <_>
      <!-- stage 13 -->
      <trees>
        <_>
          <!-- tree 0 -->
          <_>
            <!-- root node -->
            <feature>
              <rects>
                <_>
                  22 2 1 4 -1.</_>
                <_>
                  22 3 1 2 2.</_></rects>
              <tilted>0</tilted></feature>
            <threshold>-3.7588630220852792e-04</threshold>
            <left_node>1</left_node>
            <right_node>2</right_node></_>
          <_>
            <!-- node 1 -->
            <feature>
              <rects>
                <_>
                  17 7 2 12 -1.</_>
                <_>
                  17 7 2 6 2.</_></rects>
              <tilted>1</tilted></feature>
            <threshold>2.4044219404459000e-02</threshold>
            <left_val>-7.2836917638778687e-01</left_val>
            <right_val>6.5222847461700439e-01</right_val></_>
          <_>
            <!-- node 2 -->
            <feature>
              <rects>
                <_>
                  16 8 6 4 -1.</_>
                <_>
                  15 9 6 2 2.</_></rects>
              <tilted>1</tilted></feature>
            <threshold>8.1081548705697060e-03</threshold>
            <left_node>3</left_node>
            <right_val>6.2789732217788696e-01</right_val></_>
          <_>
            <!-- node 3 -->
            <feature>
              <rects>
                <_>
                  11 8 2 2 -1.</_>
                <_>
                  11 8 1 1 2.</_>
                <_>
                  12 9 1 1 2.</_></rects>
              <tilted>0</tilted></feature>
            <threshold>-3.2129051396623254e-04</threshold>
            <left_val>4.5558449625968933e-01</left_val>
            <right_node>4</right_node></_>
          <_>
            <!-- node 4 -->
            <feature>
              <rects>
                <_>
                  11 6 1 4 -1.</_>
                <_>
                  11 7 1 2 2.</_></rects>
              <tilted>0</tilted></feature>
            <threshold>8.6734362412244081e-05</threshold>
            <left_val>-6.0367441177368164e-01</left_val>
            <right_val>1.1066319793462753e-01</right_val></_></_>
        <_>
          <!-- tree 1 -->
          <_>
            <!-- root node -->
            <feature>
              <rects>
                <_>
                  11 6 10 2 -1.</_>
                <_>
                  11 6 5 2 2.</_></rects>
              <tilted>1</tilted></feature>
            <threshold>-2.6494139805436134e-02</threshold>
            <left_val>-7.3604321479797363e-01</left_val>
            <right_node>1</right_node></_>
          <_>
            <!-- node 1 -->
            <feature>
              <rects>
                <_>
                  0 3 21 6 -1.</_>
                <_>
                  7 3 7 6 3.</_></rects>
              <tilted>0</tilted></feature>
            <threshold>5.7514369487762451e-02</threshold>
            <left_node>2</left_node>
            <right_val>-7.3017382621765137e-01</right_val></_>
          <_>
            <!-- node 2 -->
            <feature>
              <rects>
                <_>
                  20 0 2 2 -1.</_>
                <_>
                  20 1 2 1 2.</_></rects>
              <tilted>0</tilted></feature>
            <threshold>-1.8972439283970743e-04</threshold>
            <left_node>4</left_node>
            <right_node>3</right_node></_>
          <_>
            <!-- node 3 -->
            <feature>
              <rects>
                <_>
                  24 12 2 6 -1.</_>
                <_>
                  24 12 2 3 2.</_></rects>
              <tilted>1</tilted></feature>
            <threshold>1.0414290009066463e-03</threshold>
            <left_val>-5.4027658700942993e-01</left_val>
            <right_val>2.7856141328811646e-01</right_val></_>
          <_>
            <!-- node 4 -->
            <feature>
              <rects>
                <_>
                  14 24 2 2 -1.</_>
                <_>
                  14 24 1 1 2.</_>
                <_>
                  15 25 1 1 2.</_></rects>
              <tilted>0</tilted></feature>
            <threshold>2.3047209833748639e-04</threshold>
            <left_val>5.4569751024246216e-01</left_val>
            <right_val>-3.9405611157417297e-01</right_val></_></_></trees>
      <stage_threshold>-4.2961341142654419e-01</stage_threshold>
      <parent>8</parent>
      <next>-1</next></_>
    <_>
      <!-- stage 14 -->
      <trees>
        <_>
          <!-- tree 0 -->
          <_>
            <!-- root node -->
            <feature>
              <rects>
                <_>
                  6 4 6 4 -1.</_>
                <_>
                  6 4 3 4 2.</_></rects>
              <tilted>1</tilted></feature>
            <threshold>1.1778430081903934e-02</threshold>
            <left_node>2</left_node>
            <right_node>1</right_node></_>
          <_>
            <!-- node 1 -->
            <feature>
              <rects>
                <_>
                  24 25 2 1 -1.</_>
                <_>
                  25 25 1 1 2.</_></rects>
              <tilted>0</tilted></feature>
            <threshold>-2.5982499937526882e-04</threshold>
            <left_val>-6.9138628244400024e-01</left_val>
            <right_node>3</right_node></_>
          <_>
            <!-- node 2 -->
            <feature>
              <rects>
                <_>
                  7 5 6 4 -1.</_>
                <_>
                  7 7 6 2 2.</_></rects>
              <tilted>0</tilted></feature>
            <threshold>5.4302951321005821e-03</threshold>
            <left_node>4</left_node>
            <right_val>2.4796900153160095e-01</right_val></_>
          <_>
            <!-- node 3 -->
            <feature>
              <rects>
                <_>
                  24 22 2 4 -1.</_>
                <_>
                  24 22 1 2 2.</_>
                <_>
                  25 24 1 2 2.</_></rects>
              <tilted>0</tilted></feature>
            <threshold>9.6235872479155660e-04</threshold>
            <left_val>4.6875348687171936e-01</left_val>
            <right_val>-8.5186159610748291e-01</right_val></_>
          <_>
            <!-- node 4 -->
            <feature>
              <rects>
                <_>
                  14 1 3 14 -1.</_>
                <_>
                  15 1 1 14 3.</_></rects>
              <tilted>0</tilted></feature>
            <threshold>-4.4978139922022820e-03</threshold>
            <left_val>1.0938979685306549e-01</left_val>
            <right_val>-8.2458347082138062e-01</right_val></_></_>
        <_>
          <!-- tree 1 -->
          <_>
            <!-- root node -->
            <feature>
              <rects>
                <_>
                  14 6 1 18 -1.</_>
                <_>
                  14 12 1 6 3.</_></rects>
              <tilted>0</tilted></feature>
            <threshold>3.9542699232697487e-03</threshold>
            <left_node>1</left_node>
            <right_node>2</right_node></_>
          <_>
            <!-- node 1 -->
            <feature>
              <rects>
                <_>
                  19 6 1 8 -1.</_>
                <_>
                  19 6 1 4 2.</_></rects>
              <tilted>1</tilted></feature>
            <threshold>7.3993778787553310e-03</threshold>
            <left_node>3</left_node>
            <right_val>3.5857450962066650e-01</right_val></_>
          <_>
            <!-- node 2 -->
            <feature>
              <rects>
                <_>
                  1 2 1 4 -1.</_>
                <_>
                  1 3 1 2 2.</_></rects>
              <tilted>0</tilted></feature>
            <threshold>-5.6458567269146442e-04</threshold>
            <left_val>-7.7883529663085938e-01</left_val>
            <right_val>4.8190149664878845e-01</right_val></_>
          <_>
            <!-- node 3 -->
            <feature>
              <rects>
                <_>
                  15 9 3 6 -1.</_>
                <_>
                  16 11 1 2 9.</_></rects>
              <tilted>0</tilted></feature>
            <threshold>4.7288071364164352e-03</threshold>
            <left_node>4</left_node>
            <right_val>1.3251179456710815e-01</right_val></_>
          <_>
            <!-- node 4 -->
            <feature>
              <rects>
                <_>
                  16 9 3 1 -1.</_>
                <_>
                  17 10 1 1 3.</_></rects>
              <tilted>1</tilted></feature>
            <threshold>-2.7794819325208664e-03</threshold>
            <left_val>2.1414819359779358e-01</left_val>
            <right_val>-7.8969758749008179e-01</right_val></_></_></trees>
      <stage_threshold>-4.9328708648681641e-01</stage_threshold>
      <parent>9</parent>
      <next>-1</next></_>
    <_>
      <!-- stage 15 -->
      <trees>
        <_>
          <!-- tree 0 -->
          <_>
            <!-- root node -->
            <feature>
              <rects>
                <_>
                  1 14 10 5 -1.</_>
                <_>
                  6 14 5 5 2.</_></rects>
              <tilted>0</tilted></feature>
            <threshold>-1.5895659103989601e-02</threshold>
            <left_node>2</left_node>
            <right_node>1</right_node></_>
          <_>
            <!-- node 1 -->
            <feature>
              <rects>
                <_>
                  1 0 14 24 -1.</_>
                <_>
                  1 0 7 12 2.</_>
                <_>
                  8 12 7 12 2.</_></rects>
              <tilted>0</tilted></feature>
            <threshold>1.0443820059299469e-01</threshold>
            <left_node>4</left_node>
            <right_val>5.0361287593841553e-01</right_val></_>
          <_>
            <!-- node 2 -->
            <feature>
              <rects>
                <_>
                  2 17 4 4 -1.</_>
                <_>
                  2 18 4 2 2.</_></rects>
              <tilted>0</tilted></feature>
            <threshold>-1.5619309851899743e-03</threshold>
            <left_val>-7.1350848674774170e-01</left_val>
            <right_node>3</right_node></_>
          <_>
            <!-- node 3 -->
            <feature>
              <rects>
                <_>
                  0 16 6 3 -1.</_>
                <_>
                  0 17 6 1 3.</_></rects>
              <tilted>0</tilted></feature>
            <threshold>-1.4287859667092562e-03</threshold>
            <left_val>-6.0589581727981567e-01</left_val>
            <right_val>5.5664050579071045e-01</right_val></_>
          <_>
            <!-- node 4 -->
            <feature>
              <rects>
                <_>
                  6 12 16 12 -1.</_>
                <_>
                  14 12 8 12 2.</_></rects>
              <tilted>0</tilted></feature>
            <threshold>-1.9145010039210320e-02</threshold>
            <left_val>3.4008461236953735e-01</left_val>
            <right_val>-6.3532972335815430e-01</right_val></_></_>
        <_>
          <!-- tree 1 -->
          <_>
            <!-- root node -->
            <feature>
              <rects>
                <_>
                  17 11 5 6 -1.</_>
                <_>
                  17 13 5 2 3.</_></rects>
              <tilted>0</tilted></feature>
            <threshold>-5.1684621721506119e-03</threshold>
            <left_val>-6.6832512617111206e-01</left_val>
            <right_node>1</right_node></_>
          <_>
            <!-- node 1 -->
            <feature>
              <rects>
                <_>
                  20 13 5 3 -1.</_>
                <_>
                  20 14 5 1 3.</_></rects>
              <tilted>0</tilted></feature>
            <threshold>1.5060399891808629e-03</threshold>
            <left_node>2</left_node>
            <right_val>-6.0448157787322998e-01</right_val></_>
          <_>
            <!-- node 2 -->
            <feature>
              <rects>
                <_>
                  22 11 3 4 -1.</_>
                <_>
                  22 12 3 2 2.</_></rects>
              <tilted>0</tilted></feature>
            <threshold>1.6263870056718588e-03</threshold>
            <left_node>3</left_node>
            <right_val>-7.8274941444396973e-01</right_val></_>
          <_>
            <!-- node 3 -->
            <feature>
              <rects>
                <_>
                  22 0 2 3 -1.</_>
                <_>
                  23 0 1 3 2.</_></rects>
              <tilted>0</tilted></feature>
            <threshold>9.7086856840178370e-05</threshold>
            <left_node>4</left_node>
            <right_val>5.5393272638320923e-01</right_val></_>
          <_>
            <!-- node 4 -->
            <feature>
              <rects>
                <_>
                  23 0 2 1 -1.</_>
                <_>
                  24 0 1 1 2.</_></rects>
              <tilted>0</tilted></feature>
            <threshold>-4.6988989197416231e-05</threshold>
            <left_val>3.5870110988616943e-01</left_val>
            <right_val>-5.4615682363510132e-01</right_val></_></_></trees>
      <stage_threshold>-2.7662870287895203e-01</stage_threshold>
      <parent>10</parent>
      <next>-1</next></_>
    <_>
      <!-- stage 16 -->
      <trees>
        <_>
          <!-- tree 0 -->
          <_>
            <!-- root node -->
            <feature>
              <rects>
                <_>
                  0 11 6 6 -1.</_>
                <_>
                  3 11 3 6 2.</_></rects>
              <tilted>0</tilted></feature>
            <threshold>-5.6870118714869022e-03</threshold>
            <left_node>1</left_node>
            <right_node>3</right_node></_>
          <_>
            <!-- node 1 -->
            <feature>
              <rects>
                <_>
                  0 14 5 3 -1.</_>
                <_>
                  0 15 5 1 3.</_></rects>
              <tilted>0</tilted></feature>
            <threshold>-1.6737129772081971e-03</threshold>
            <left_val>-1.</left_val>
            <right_node>2</right_node></_>
          <_>
            <!-- node 2 -->
            <feature>
              <rects>
                <_>
                  23 3 3 6 -1.</_>
                <_>
                  23 5 3 2 3.</_></rects>
              <tilted>0</tilted></feature>
            <threshold>3.3856460358947515e-03</threshold>
            <left_val>5.0328141450881958e-01</left_val>
            <right_val>-9.9997001886367798e-01</right_val></_>
          <_>
            <!-- node 3 -->
            <feature>
              <rects>
                <_>
                  12 8 4 1 -1.</_>
                <_>
                  13 8 2 1 2.</_></rects>
              <tilted>0</tilted></feature>
            <threshold>-1.2355620274320245e-03</threshold>
            <left_node>4</left_node>
            <right_val>-5.8314990997314453e-01</right_val></_>
          <_>
            <!-- node 4 -->
            <feature>
              <rects>
                <_>
                  20 2 3 14 -1.</_>
                <_>
                  20 2 3 7 2.</_></rects>
              <tilted>1</tilted></feature>
            <threshold>1.2581850402057171e-02</threshold>
            <left_val>-1.</left_val>
            <right_val>5.8569842576980591e-01</right_val></_></_>
        <_>
          <!-- tree 1 -->
          <_>
            <!-- root node -->
            <feature>
              <rects>
                <_>
                  2 14 7 12 -1.</_>
                <_>
                  2 17 7 6 2.</_></rects>
              <tilted>0</tilted></feature>
            <threshold>2.7697039768099785e-03</threshold>
            <left_node>1</left_node>
            <right_node>3</right_node></_>
          <_>
            <!-- node 1 -->
            <feature>
              <rects>
                <_>
                  11 8 2 2 -1.</_>
                <_>
                  12 8 1 2 2.</_></rects>
              <tilted>0</tilted></feature>
            <threshold>1.1147259501740336e-03</threshold>
            <left_val>-5.6527912616729736e-01</left_val>
            <right_node>2</right_node></_>
          <_>
            <!-- node 2 -->
            <feature>
              <rects>
                <_>
                  20 1 1 4 -1.</_>
                <_>
                  20 3 1 2 2.</_></rects>
              <tilted>0</tilted></feature>
            <threshold>-2.3055040219333023e-04</threshold>
            <left_val>7.6672947406768799e-01</left_val>
            <right_val>-7.6481872797012329e-01</right_val></_>
          <_>
            <!-- node 3 -->
            <feature>
              <rects>
                <_>
                  20 13 1 3 -1.</_>
                <_>
                  20 14 1 1 3.</_></rects>
              <tilted>0</tilted></feature>
            <threshold>6.4276281045749784e-04</threshold>
            <left_node>4</left_node>
            <right_val>-8.6655312776565552e-01</right_val></_>
          <_>
            <!-- node 4 -->
            <feature>
              <rects>
                <_>
                  23 1 2 2 -1.</_>
                <_>
                  23 2 2 1 2.</_></rects>
              <tilted>0</tilted></feature>
            <threshold>-8.6088461102917790e-05</threshold>
            <left_val>7.2670102119445801e-01</left_val>
            <right_val>2.6321209967136383e-02</right_val></_></_></trees>
      <stage_threshold>-3.6327171325683594e-01</stage_threshold>
      <parent>11</parent>
      <next>-1</next></_>
    <_>
      <!-- stage 17 -->
      <trees>
        <_>
          <!-- tree 0 -->
          <_>
            <!-- root node -->
            <feature>
              <rects>
                <_>
                  21 1 2 1 -1.</_>
                <_>
                  22 1 1 1 2.</_></rects>
              <tilted>0</tilted></feature>
            <threshold>5.0856830057455227e-05</threshold>
            <left_node>3</left_node>
            <right_node>1</right_node></_>
          <_>
            <!-- node 1 -->
            <feature>
              <rects>
                <_>
                  3 2 11 4 -1.</_>
                <_>
                  3 3 11 2 2.</_></rects>
              <tilted>0</tilted></feature>
            <threshold>-3.7580200005322695e-03</threshold>
            <left_val>-8.0658292770385742e-01</left_val>
            <right_node>2</right_node></_>
          <_>
            <!-- node 2 -->
            <feature>
              <rects>
                <_>
                  23 3 3 3 -1.</_>
                <_>
                  23 4 3 1 3.</_></rects>
              <tilted>0</tilted></feature>
            <threshold>-1.0300460271537304e-03</threshold>
            <left_val>-7.3277080059051514e-01</left_val>
            <right_node>4</right_node></_>
          <_>
            <!-- node 3 -->
            <feature>
              <rects>
                <_>
                  4 25 18 1 -1.</_>
                <_>
                  13 25 9 1 2.</_></rects>
              <tilted>0</tilted></feature>
            <threshold>1.6257079318165779e-02</threshold>
            <left_val>-5.7852858304977417e-01</left_val>
            <right_val>4.1402131319046021e-01</right_val></_>
          <_>
            <!-- node 4 -->
            <feature>
              <rects>
                <_>
                  0 4 10 2 -1.</_>
                <_>
                  0 5 10 1 2.</_></rects>
              <tilted>0</tilted></feature>
            <threshold>-4.9757971428334713e-03</threshold>
            <left_val>-1.</left_val>
            <right_val>6.3204771280288696e-01</right_val></_></_>
        <_>
          <!-- tree 1 -->
          <_>
            <!-- root node -->
            <feature>
              <rects>
                <_>
                  11 7 2 8 -1.</_>
                <_>
                  11 7 1 4 2.</_>
                <_>
                  12 11 1 4 2.</_></rects>
              <tilted>0</tilted></feature>
            <threshold>-1.9865280482918024e-03</threshold>
            <left_node>3</left_node>
            <right_node>1</right_node></_>
          <_>
            <!-- node 1 -->
            <feature>
              <rects>
                <_>
                  3 3 16 2 -1.</_>
                <_>
                  7 3 8 2 2.</_></rects>
              <tilted>0</tilted></feature>
            <threshold>-8.1827919930219650e-03</threshold>
            <left_node>2</left_node>
            <right_val>-5.3614377975463867e-01</right_val></_>
          <_>
            <!-- node 2 -->
            <feature>
              <rects>
                <_>
                  3 8 8 4 -1.</_>
                <_>
                  3 9 8 2 2.</_></rects>
              <tilted>0</tilted></feature>
            <threshold>1.7724540084600449e-03</threshold>
            <left_node>4</left_node>
            <right_val>-9.1671139001846313e-01</right_val></_>
          <_>
            <!-- node 3 -->
            <feature>
              <rects>
                <_>
                  1 15 4 1 -1.</_>
                <_>
                  2 16 2 1 2.</_></rects>
              <tilted>1</tilted></feature>
            <threshold>1.6318809939548373e-03</threshold>
            <left_val>6.7314857244491577e-01</left_val>
            <right_val>-1.0000029802322388e+00</right_val></_>
          <_>
            <!-- node 4 -->
            <feature>
              <rects>
                <_>
                  14 12 7 4 -1.</_>
                <_>
                  14 12 7 2 2.</_></rects>
              <tilted>1</tilted></feature>
            <threshold>7.9229120165109634e-03</threshold>
            <left_val>-2.3075950145721436e-01</left_val>
            <right_val>6.8764698505401611e-01</right_val></_></_></trees>
      <stage_threshold>-1.2212249636650085e-01</stage_threshold>
      <parent>12</parent>
      <next>-1</next></_>
    <_>
      <!-- stage 18 -->
      <trees>
        <_>
          <!-- tree 0 -->
          <_>
            <!-- root node -->
            <feature>
              <rects>
                <_>
                  16 0 6 3 -1.</_>
                <_>
                  16 1 6 1 3.</_></rects>
              <tilted>0</tilted></feature>
            <threshold>-1.4041400281712413e-03</threshold>
            <left_node>4</left_node>
            <right_node>1</right_node></_>
          <_>
            <!-- node 1 -->
            <feature>
              <rects>
                <_>
                  19 0 7 4 -1.</_>
                <_>
                  19 1 7 2 2.</_></rects>
              <tilted>0</tilted></feature>
            <threshold>1.7304449575021863e-03</threshold>
            <left_node>2</left_node>
            <right_val>-4.0465089678764343e-01</right_val></_>
          <_>
            <!-- node 2 -->
            <feature>
              <rects>
                <_>
                  25 2 1 2 -1.</_>
                <_>
                  25 3 1 1 2.</_></rects>
              <tilted>0</tilted></feature>
            <threshold>-4.0731440094532445e-05</threshold>
            <left_val>4.8464098572731018e-01</left_val>
            <right_node>3</right_node></_>
          <_>
            <!-- node 3 -->
            <feature>
              <rects>
                <_>
                  7 6 9 6 -1.</_>
                <_>
                  10 6 3 6 3.</_></rects>
              <tilted>0</tilted></feature>
            <threshold>4.9355882219970226e-03</threshold>
            <left_val>-6.5176337957382202e-01</left_val>
            <right_val>3.7615180015563965e-01</right_val></_>
          <_>
            <!-- node 4 -->
            <feature>
              <rects>
                <_>
                  16 3 9 9 -1.</_>
                <_>
                  19 3 3 9 3.</_></rects>
              <tilted>0</tilted></feature>
            <threshold>2.1953040733933449e-02</threshold>
            <left_val>-8.7836802005767822e-01</left_val>
            <right_val>1.7511770129203796e-01</right_val></_></_>
        <_>
          <!-- tree 1 -->
          <_>
            <!-- root node -->
            <feature>
              <rects>
                <_>
                  9 24 13 2 -1.</_>
                <_>
                  9 25 13 1 2.</_></rects>
              <tilted>0</tilted></feature>
            <threshold>3.0004789005033672e-04</threshold>
            <left_node>2</left_node>
            <right_node>1</right_node></_>
          <_>
            <!-- node 1 -->
            <feature>
              <rects>
                <_>
                  1 24 22 2 -1.</_>
                <_>
                  1 24 11 1 2.</_>
                <_>
                  12 25 11 1 2.</_></rects>
              <tilted>0</tilted></feature>
            <threshold>6.3632298260927200e-03</threshold>
            <left_node>3</left_node>
            <right_val>-7.5897538661956787e-01</right_val></_>
          <_>
            <!-- node 2 -->
            <feature>
              <rects>
                <_>
                  20 18 4 3 -1.</_>
                <_>
                  19 19 4 1 3.</_></rects>
              <tilted>1</tilted></feature>
            <threshold>-9.6574109047651291e-03</threshold>
            <left_val>6.4842271804809570e-01</left_val>
            <right_val>-4.8954999446868896e-01</right_val></_>
          <_>
            <!-- node 3 -->
            <feature>
              <rects>
                <_>
                  13 0 3 9 -1.</_>
                <_>
                  14 0 1 9 3.</_></rects>
              <tilted>0</tilted></feature>
            <threshold>-2.5517221074551344e-03</threshold>
            <left_val>-5.2821511030197144e-01</left_val>
            <right_node>4</right_node></_>
          <_>
            <!-- node 4 -->
            <feature>
              <rects>
                <_>
                  0 3 25 3 -1.</_>
                <_>
                  0 4 25 1 3.</_></rects>
              <tilted>0</tilted></feature>
            <threshold>-8.7867295369505882e-03</threshold>
            <left_val>-1.</left_val>
            <right_val>4.6881508827209473e-01</right_val></_></_>
        <_>
          <!-- tree 2 -->
          <_>
            <!-- root node -->
            <feature>
              <rects>
                <_>
                  12 11 2 3 -1.</_>
                <_>
                  13 11 1 3 2.</_></rects>
              <tilted>0</tilted></feature>
            <threshold>5.2934908308088779e-04</threshold>
            <left_node>1</left_node>
            <right_node>2</right_node></_>
          <_>
            <!-- node 1 -->
            <feature>
              <rects>
                <_>
                  11 11 3 3 -1.</_>
                <_>
                  12 11 1 3 3.</_></rects>
              <tilted>0</tilted></feature>
            <threshold>7.9703720984980464e-04</threshold>
            <left_node>4</left_node>
            <right_node>3</right_node></_>
          <_>
            <!-- node 2 -->
            <feature>
              <rects>
                <_>
                  18 20 4 6 -1.</_>
                <_>
                  19 20 2 6 2.</_></rects>
              <tilted>0</tilted></feature>
            <threshold>-1.7328710528090596e-03</threshold>
            <left_val>-7.8265607357025146e-01</left_val>
            <right_val>5.1204878091812134e-01</right_val></_>
          <_>
            <!-- node 3 -->
            <feature>
              <rects>
                <_>
                  2 12 20 6 -1.</_>
                <_>
                  2 14 20 2 3.</_></rects>
              <tilted>0</tilted></feature>
            <threshold>-1.7155669629573822e-02</threshold>
            <left_val>-9.1487342119216919e-01</left_val>
            <right_val>3.9664939045906067e-01</right_val></_>
          <_>
            <!-- node 4 -->
            <feature>
              <rects>
                <_>
                  7 3 6 2 -1.</_>
                <_>
                  7 4 6 1 2.</_></rects>
              <tilted>0</tilted></feature>
            <threshold>-1.1893090559169650e-03</threshold>
            <left_val>-7.4113108217716217e-02</left_val>
            <right_val>-8.0273687839508057e-01</right_val></_></_></trees>
      <stage_threshold>-2.5706139206886292e-01</stage_threshold>
      <parent>13</parent>
      <next>-1</next></_>
    <_>
      <!-- stage 19 -->
      <trees>
        <_>
          <!-- tree 0 -->
          <_>
            <!-- root node -->
            <feature>
              <rects>
                <_>
                  17 10 2 1 -1.</_>
                <_>
                  18 10 1 1 2.</_></rects>
              <tilted>0</tilted></feature>
            <threshold>-1.9017940212506801e-04</threshold>
            <left_val>4.4367519021034241e-01</left_val>
            <right_node>1</right_node></_>
          <_>
            <!-- node 1 -->
            <feature>
              <rects>
                <_>
                  16 10 6 1 -1.</_>
                <_>
                  18 10 2 1 3.</_></rects>
              <tilted>0</tilted></feature>
            <threshold>9.5040939049795270e-04</threshold>
            <left_node>2</left_node>
            <right_node>3</right_node></_>
          <_>
            <!-- node 2 -->
            <feature>
              <rects>
                <_>
                  12 8 2 5 -1.</_>
                <_>
                  13 8 1 5 2.</_></rects>
              <tilted>0</tilted></feature>
            <threshold>-2.7241529896855354e-03</threshold>
            <left_val>3.5373139381408691e-01</left_val>
            <right_node>4</right_node></_>
          <_>
            <!-- node 3 -->
            <feature>
              <rects>
                <_>
                  19 20 1 6 -1.</_>
                <_>
                  19 22 1 2 3.</_></rects>
              <tilted>0</tilted></feature>
            <threshold>-5.3651840426027775e-04</threshold>
            <left_val>-7.2724282741546631e-01</left_val>
            <right_val>4.9646079540252686e-01</right_val></_>
          <_>
            <!-- node 4 -->
            <feature>
              <rects>
                <_>
                  15 9 2 6 -1.</_>
                <_>
                  15 9 1 3 2.</_>
                <_>
                  16 12 1 3 2.</_></rects>
              <tilted>0</tilted></feature>
            <threshold>1.3565579429268837e-03</threshold>
            <left_val>-8.9354741573333740e-01</left_val>
            <right_val>9.3834660947322845e-02</right_val></_></_>
        <_>
          <!-- tree 1 -->
          <_>
            <!-- root node -->
            <feature>
              <rects>
                <_>
                  23 22 2 3 -1.</_>
                <_>
                  24 22 1 3 2.</_></rects>
              <tilted>0</tilted></feature>
            <threshold>4.9082129407906905e-05</threshold>
            <left_val>-5.3155469894409180e-01</left_val>
            <right_node>1</right_node></_>
          <_>
            <!-- node 1 -->
            <feature>
              <rects>
                <_>
                  22 22 4 4 -1.</_>
                <_>
                  22 23 4 2 2.</_></rects>
              <tilted>0</tilted></feature>
            <threshold>-1.7515190411359072e-03</threshold>
            <left_val>-8.8149297237396240e-01</left_val>
            <right_node>2</right_node></_>
          <_>
            <!-- node 2 -->
            <feature>
              <rects>
                <_>
                  15 5 2 2 -1.</_>
                <_>
                  15 5 1 1 2.</_>
                <_>
                  16 6 1 1 2.</_></rects>
              <tilted>0</tilted></feature>
            <threshold>1.8022849690169096e-04</threshold>
            <left_node>3</left_node>
            <right_val>6.2866342067718506e-01</right_val></_>
          <_>
            <!-- node 3 -->
            <feature>
              <rects>
                <_>
                  13 12 2 9 -1.</_>
                <_>
                  14 12 1 9 2.</_></rects>
              <tilted>0</tilted></feature>
            <threshold>1.5552609693259001e-03</threshold>
            <left_node>4</left_node>
            <right_val>5.0056427717208862e-01</right_val></_>
          <_>
            <!-- node 4 -->
            <feature>
              <rects>
                <_>
                  10 11 3 2 -1.</_>
                <_>
                  10 11 3 1 2.</_></rects>
              <tilted>1</tilted></feature>
            <threshold>2.0247490610927343e-03</threshold>
            <left_val>-7.3409998416900635e-01</left_val>
            <right_val>4.4012430310249329e-01</right_val></_></_></trees>
      <stage_threshold>-3.8503208756446838e-01</stage_threshold>
      <parent>14</parent>
      <next>-1</next></_>
    <_>
      <!-- stage 20 -->
      <trees>
        <_>
          <!-- tree 0 -->
          <_>
            <!-- root node -->
            <feature>
              <rects>
                <_>
                  3 9 2 16 -1.</_>
                <_>
                  3 17 2 8 2.</_></rects>
              <tilted>0</tilted></feature>
            <threshold>-2.1750589367002249e-03</threshold>
            <left_node>1</left_node>
            <right_node>4</right_node></_>
          <_>
            <!-- node 1 -->
            <feature>
              <rects>
                <_>
                  23 2 3 23 -1.</_>
                <_>
                  24 2 1 23 3.</_></rects>
              <tilted>0</tilted></feature>
            <threshold>5.1616500131785870e-03</threshold>
            <left_node>2</left_node>
            <right_val>-1.0000710487365723e+00</right_val></_>
          <_>
            <!-- node 2 -->
            <feature>
              <rects>
                <_>
                  0 17 6 2 -1.</_>
                <_>
                  0 18 6 1 2.</_></rects>
              <tilted>0</tilted></feature>
            <threshold>-3.1868799123913050e-04</threshold>
            <left_val>6.1052167415618896e-01</left_val>
            <right_node>3</right_node></_>
          <_>
            <!-- node 3 -->
            <feature>
              <rects>
                <_>
                  7 14 2 2 -1.</_>
                <_>
                  7 14 1 1 2.</_>
                <_>
                  8 15 1 1 2.</_></rects>
              <tilted>0</tilted></feature>
            <threshold>-2.1766420104540884e-04</threshold>
            <left_val>5.8420288562774658e-01</left_val>
            <right_val>-8.6393451690673828e-01</right_val></_>
          <_>
            <!-- node 4 -->
            <feature>
              <rects>
                <_>
                  1 21 18 4 -1.</_>
                <_>
                  10 21 9 4 2.</_></rects>
              <tilted>0</tilted></feature>
            <threshold>8.3622977137565613e-02</threshold>
            <left_val>-1.</left_val>
            <right_val>7.1099072694778442e-01</right_val></_></_></trees>
      <stage_threshold>5.8420288562774658e-01</stage_threshold>
      <parent>15</parent>
      <next>21</next></_>
    <_>
      <!-- stage 21 -->
      <trees>
        <_>
          <!-- tree 0 -->
          <_>
            <!-- root node -->
            <feature>
              <rects>
                <_>
                  1 21 14 5 -1.</_>
                <_>
                  8 21 7 5 2.</_></rects>
              <tilted>0</tilted></feature>
            <threshold>-3.2916020601987839e-02</threshold>
            <left_node>2</left_node>
            <right_node>1</right_node></_>
          <_>
            <!-- node 1 -->
            <feature>
              <rects>
                <_>
                  2 8 4 18 -1.</_>
                <_>
                  2 17 4 9 2.</_></rects>
              <tilted>0</tilted></feature>
            <threshold>6.1713908798992634e-03</threshold>
            <left_val>-9.4387042522430420e-01</left_val>
            <right_node>3</right_node></_>
          <_>
            <!-- node 2 -->
            <feature>
              <rects>
                <_>
                  4 24 3 2 -1.</_>
                <_>
                  5 24 1 2 3.</_></rects>
              <tilted>0</tilted></feature>
            <threshold>-1.6032590065151453e-03</threshold>
            <left_val>-1.</left_val>
            <right_node>4</right_node></_>
          <_>
            <!-- node 3 -->
            <feature>
              <rects>
                <_>
                  5 15 12 2 -1.</_>
                <_>
                  5 16 12 1 2.</_></rects>
              <tilted>0</tilted></feature>
            <threshold>-1.6163759864866734e-03</threshold>
            <left_val>5.0646060705184937e-01</left_val>
            <right_val>-6.0106140375137329e-01</right_val></_>
          <_>
            <!-- node 4 -->
            <feature>
              <rects>
                <_>
                  1 7 16 1 -1.</_>
                <_>
                  5 11 8 1 2.</_></rects>
              <tilted>1</tilted></feature>
            <threshold>-2.6414800435304642e-02</threshold>
            <left_val>-1.</left_val>
            <right_val>4.7438031435012817e-01</right_val></_></_></trees>
      <stage_threshold>-6.0106140375137329e-01</stage_threshold>
      <parent>15</parent>
      <next>-1</next></_>
    <_>
      <!-- stage 22 -->
      <trees>
        <_>
          <!-- tree 0 -->
          <_>
            <!-- root node -->
            <feature>
              <rects>
                <_>
                  13 11 3 3 -1.</_>
                <_>
                  14 11 1 3 3.</_></rects>
              <tilted>0</tilted></feature>
            <threshold>7.0225261151790619e-04</threshold>
            <left_node>1</left_node>
            <right_node>2</right_node></_>
          <_>
            <!-- node 1 -->
            <feature>
              <rects>
                <_>
                  13 11 3 2 -1.</_>
                <_>
                  14 11 1 2 3.</_></rects>
              <tilted>0</tilted></feature>
            <threshold>-7.4228970333933830e-04</threshold>
            <left_node>4</left_node>
            <right_node>3</right_node></_>
          <_>
            <!-- node 2 -->
            <feature>
              <rects>
                <_>
                  25 2 1 12 -1.</_>
                <_>
                  25 2 1 6 2.</_></rects>
